<?xml version="1.0"?>
<opencv_storage>
<cascade>
  <stageType>BOOST</stageType>
  <featureType>LBP</featureType>
  <height>24</height>
  <width>24</width>
  <stageParams>
    <boostType>GAB</boostType>
    <minHitRate>9.9500000476837158e-01</minHitRate>
    <maxFalseAlarm>5.0000000000000000e-01</maxFalseAlarm>
    <weightTrimRate>9.4999999999999996e-01</weightTrimRate>
    <maxDepth>1</maxDepth>
    <maxWeakCount>100</maxWeakCount></stageParams>
  <featureParams>
    <maxCatCount>256</maxCatCount>
    <featSize>1</featSize></featureParams>
  <stageNum>12</stageNum>
  <stages>
    <!-- stage 0 -->
    <_>
      <maxWeakCount>2</maxWeakCount>
      <stageThreshold>-1.4576536417007446e-01</stageThreshold>
      <weakClassifiers>
        <_>
          <internalNodes>
            0 -1 19 -776866322 -707542063 294769137 -204357613
            -1002320948 -1616328514 -998014728 -3585</internalNodes>
          <leafValues>
            -9.2511415481567383e-01 8.4983223676681519e-01</leafValues></_>
        <_>
          <internalNodes>
            0 -1 15 -40829712 -47136624 -44230181 -38538839 -124594760
            -1744794624 -74854481 -1048577</internalNodes>
          <leafValues>
            -9.2087483406066895e-01 7.7934879064559937e-01</leafValues></_></weakClassifiers></_>
    <!-- stage 1 -->
    <_>
      <maxWeakCount>3</maxWeakCount>
      <stageThreshold>-9.8434436321258545e-01</stageThreshold>
      <weakClassifiers>
        <_>
          <internalNodes>
            0 -1 13 1897136110 -150753534 1900122623 -42733094 402127855
            -4865861 -252733185 -68161569</internalNodes>
          <leafValues>
            -8.9579349756240845e-01 7.5503623485565186e-01</leafValues></_>
        <_>
          <internalNodes>
            0 -1 18 -593691148 -38276619 -53939723 -6985899 -1633645633
            -162313 -1131493122 -72110421</internalNodes>
          <leafValues>
            -8.1616073846817017e-01 7.6553070545196533e-01</leafValues></_>
        <_>
          <internalNodes>
            0 -1 2 -605359878 -5635584 -777432833 -36240880 -658456134
            -4254481 1620169403 -67143713</internalNodes>
          <leafValues>
            -8.5299354791641235e-01 7.2760993242263794e-01</leafValues></_></weakClassifiers></_>
    <!-- stage 2 -->
    <_>
      <maxWeakCount>2</maxWeakCount>
      <stageThreshold>-1.4497745037078857e-01</stageThreshold>
      <weakClassifiers>
        <_>
          <internalNodes>
            0 -1 14 -237242884 -75972641 -111946724 -1145841126 99582463
            -10113 1174359694 -67122213</internalNodes>
          <leafValues>
            -8.5874330997467041e-01 6.9932568073272705e-01</leafValues></_>
        <_>
          <internalNodes>
            0 -1 31 -3146848 -2625253 -1500696843 -3411509 -1158960182
            -1157382009 -890789649 -344981649</internalNodes>
          <leafValues>
            -8.4430313110351562e-01 7.2207409143447876e-01</leafValues></_></weakClassifiers></_>
    <!-- stage 3 -->
    <_>
      <maxWeakCount>2</maxWeakCount>
      <stageThreshold>-1.4386592805385590e-01</stageThreshold>
      <weakClassifiers>
        <_>
          <internalNodes>
            0 -1 22 -2097153 -160367169 -33619972 -983600 -34079243
            -1938505867 -51053332 -50987011</internalNodes>
          <leafValues>
            -8.0329370498657227e-01 7.3534339666366577e-01</leafValues></_>
        <_>
          <internalNodes>
            0 -1 27 -237832706 2066947903 -136263974 1059322762
            -103024387 -38013013 -44838 -4197441</internalNodes>
          <leafValues>
            -8.4785544872283936e-01 6.5942776203155518e-01</leafValues></_></weakClassifiers></_>
    <!-- stage 4 -->
    <_>
      <maxWeakCount>3</maxWeakCount>
      <stageThreshold>-6.7171967029571533e-01</stageThreshold>
      <weakClassifiers>
        <_>
          <internalNodes>
            0 -1 3 -16133 -536901438 -13089 -536935681 -132609 -4207541
            -528641 -805318961</internalNodes>
          <leafValues>
            -7.1572327613830566e-01 7.7980810403823853e-01</leafValues></_>
        <_>
          <internalNodes>
            0 -1 26 -812130509 -1356093526 -37752845 -9239 -168839245
            -1884291701 -303045382 -1718879045</internalNodes>
          <leafValues>
            -7.1612524986267090e-01 7.2173678874969482e-01</leafValues></_>
        <_>
          <internalNodes>
            0 -1 21 -752353281 -85984297 -35729409 -570957570 -87037995
            -1163247535 -339490310 -104074661</internalNodes>
          <leafValues>
            -6.7773318290710449e-01 8.0661481618881226e-01</leafValues></_></weakClassifiers></_>
    <!-- stage 5 -->
    <_>
      <maxWeakCount>3</maxWeakCount>
      <stageThreshold>-9.5284509658813477e-01</stageThreshold>
      <weakClassifiers>
        <_>
          <internalNodes>
            0 -1 7 -167576846 -619645645 -1382491113 -547891949
            -209325829 -67899905 -40918017 -2103857</internalNodes>
          <leafValues>
            -7.5952816009521484e-01 7.0632910728454590e-01</leafValues></_>
        <_>
          <internalNodes>
            0 -1 20 -33695746 -10506241 -428418 -134267031 -990516050
            -33706049 -724173569 -168300037</internalNodes>
          <leafValues>
            -8.4678536653518677e-01 6.2376856803894043e-01</leafValues></_>
        <_>
          <internalNodes>
            0 -1 17 -135070726 -100928039 -1457975301 -71593985 -42501
            -1633954789 2063802299 -552612085</internalNodes>
          <leafValues>
            -8.1034368276596069e-01 6.5346837043762207e-01</leafValues></_></weakClassifiers></_>
    <!-- stage 6 -->
    <_>
      <maxWeakCount>3</maxWeakCount>
      <stageThreshold>-8.1150299310684204e-01</stageThreshold>
      <weakClassifiers>
        <_>
          <internalNodes>
            0 -1 4 -578824708 -11489794 526636543 -137502984 -34817026
            -5441 -645858562 -579408139</internalNodes>
          <leafValues>
            -7.3916888236999512e-01 7.2318339347839355e-01</leafValues></_>
        <_>
          <internalNodes>
            0 -1 11 -758456370 -83231833 -272785446 -7471142 8556431
            -1416894546 224120799 -1048597</internalNodes>
          <leafValues>
            -8.4433019161224365e-01 6.1168283224105835e-01</leafValues></_>
        <_>
          <internalNodes>
            0 -1 30 -1023950081 -67399697 -603993089 -67420353
            2122039547 -88358913 -344208645 -79955205</internalNodes>
          <leafValues>
            -6.8401700258255005e-01 7.7220636606216431e-01</leafValues></_></weakClassifiers></_>
    <!-- stage 7 -->
    <_>
      <maxWeakCount>2</maxWeakCount>
      <stageThreshold>-2.1622359752655029e-01</stageThreshold>
      <weakClassifiers>
        <_>
          <internalNodes>
            0 -1 0 -16843026 -92608558 -285476838 -151263186 -2360881
            -789065 -826806385 -806357153</internalNodes>
          <leafValues>
            -7.8373205661773682e-01 6.5942031145095825e-01</leafValues></_>
        <_>
          <internalNodes>
            0 -1 25 -11536444 1594435333 -117055746 1601138479 -32305
            -1301683 -1057042 -1048881</internalNodes>
          <leafValues>
            -8.4320443868637085e-01 5.6750845909118652e-01</leafValues></_></weakClassifiers></_>
    <!-- stage 8 -->
    <_>
      <maxWeakCount>3</maxWeakCount>
      <stageThreshold>-8.9664804935455322e-01</stageThreshold>
      <weakClassifiers>
        <_>
          <internalNodes>
            0 -1 6 -1912467953 -1348837377 -169934849 -459361 1222024991
            -1075843331 -34804737 -196677</internalNodes>
          <leafValues>
            -7.6217764616012573e-01 6.4354836940765381e-01</leafValues></_>
        <_>
          <internalNodes>
            0 -1 23 -657932 1964373420 -5415425 -176725505 -143130625
            -143263753 -303047681 -528641</internalNodes>
          <leafValues>
            -8.2787227630615234e-01 5.8416903018951416e-01</leafValues></_>
        <_>
          <internalNodes>
            0 -1 10 -23693 -35021 -8735437 -52973 -1930516557
            -1426132699 -1360615550 -940575949</internalNodes>
          <leafValues>
            -7.1232414245605469e-01 6.9953089952468872e-01</leafValues></_></weakClassifiers></_>
    <!-- stage 9 -->
    <_>
      <maxWeakCount>3</maxWeakCount>
      <stageThreshold>-7.5551807880401611e-01</stageThreshold>
      <weakClassifiers>
        <_>
          <internalNodes>
            0 -1 16 -655185697 -191105029 763824479 -33554725 -24969221
            1035075251 -1663083196 -2359998</internalNodes>
          <leafValues>
            -7.6011157035827637e-01 6.7478334903717041e-01</leafValues></_>
        <_>
          <internalNodes>
            0 -1 8 -858797537 -747172337 -220074241 -791855 -201357058
            -212587507 -19407365 -166236513</internalNodes>
          <leafValues>
            -7.0396047830581665e-01 6.8840581178665161e-01</leafValues></_>
        <_>
          <internalNodes>
            0 -1 9 -265997 1360724177 -1621703593 -580955939 -6565941
            -493633069 -5584433 -606088993</internalNodes>
          <leafValues>
            -6.8381232023239136e-01 7.3498833179473877e-01</leafValues></_></weakClassifiers></_>
    <!-- stage 10 -->
    <_>
      <maxWeakCount>4</maxWeakCount>
      <stageThreshold>-4.3654873967170715e-01</stageThreshold>
      <weakClassifiers>
        <_>
          <internalNodes>
            0 -1 5 -1655989249 1998329308 -289282 -17255426 -379938308
            -583865163 -307524108 -33620518</internalNodes>
          <leafValues>
            -7.7562862634658813e-01 6.4006382226943970e-01</leafValues></_>
        <_>
          <internalNodes>
            0 -1 29 -613945462 -75892949 -515023877 -1150682341
            -219862360 -1049109 -1334596949 -1283458145</internalNodes>
          <leafValues>
            -7.9223597049713135e-01 6.0556966066360474e-01</leafValues></_>
        <_>
          <internalNodes>
            0 -1 24 -420040908 2004204351 -4796545 -788621 1172156351
            1945404271 -68304917 -33817877</internalNodes>
          <leafValues>
            -8.2432311773300171e-01 5.5784487724304199e-01</leafValues></_>
        <_>
          <internalNodes>
            0 -1 1 -1999704881 -2010141018 -98569477 -1712876858
            -204638993 -1056547 -85986097 -808455217</internalNodes>
          <leafValues>
            -8.2433468103408813e-01 5.9811067581176758e-01</leafValues></_></weakClassifiers></_>
    <!-- stage 11 -->
    <_>
      <maxWeakCount>3</maxWeakCount>
      <stageThreshold>-8.6015909910202026e-01</stageThreshold>
      <weakClassifiers>
        <_>
          <internalNodes>
            0 -1 32 -16779771 -806354945 -4264261 -4210881 -6391
            -1048594 -318820943 -75</internalNodes>
          <leafValues>
            -6.9051724672317505e-01 7.1073645353317261e-01</leafValues></_>
        <_>
          <internalNodes>
            0 -1 12 -201396554 1911595267 -1094193431 -3463417 -31741953
            586350841 -20205618 -267425</internalNodes>
          <leafValues>
            -7.8410512208938599e-01 6.5489542484283447e-01</leafValues></_>
        <_>
          <internalNodes>
            0 -1 28 -117454644 -96485641 -297403138 -73926501
            -1969256252 -120988929 -1990209800 -4130</internalNodes>
          <leafValues>
            -7.8679043054580688e-01 6.6677457094192505e-01</leafValues></_></weakClassifiers></_></stages>
  <features>
    <_>
      <rect>
        0 0 2 8</rect></_>
    <_>
      <rect>
        0 1 3 5</rect></_>
    <_>
      <rect>
        0 3 5 2</rect></_>
    <_>
      <rect>
        0 8 5 3</rect></_>
    <_>
      <rect>
        0 18 8 2</rect></_>
    <_>
      <rect>
        0 21 8 1</rect></_>
    <_>
      <rect>
        1 0 7 1</rect></_>
    <_>
      <rect>
        2 0 5 3</rect></_>
    <_>
      <rect>
        2 18 4 1</rect></_>
    <_>
      <rect>
        4 3 2 3</rect></_>
    <_>
      <rect>
        5 6 1 3</rect></_>
    <_>
      <rect>
        5 6 3 2</rect></_>
    <_>
      <rect>
        5 8 2 3</rect></_>
    <_>
      <rect>
        6 7 3 2</rect></_>
    <_>
      <rect>
        6 10 2 3</rect></_>
    <_>
      <rect>
        6 12 4 3</rect></_>
    <_>
      <rect>
        6 14 6 3</rect></_>
    <_>
      <rect>
        8 14 3 3</rect></_>
    <_>
      <rect>
        8 18 3 2</rect></_>
    <_>
      <rect>
        9 7 3 2</rect></_>
    <_>
      <rect>
        9 8 3 2</rect></_>
    <_>
      <rect>
        9 9 2 2</rect></_>
    <_>
      <rect>
        9 10 2 1</rect></_>
    <_>
      <rect>
        9 12 3 3</rect></_>
    <_>
      <rect>
        9 13 2 2</rect></_>
    <_>
      <rect>
        10 6 3 2</rect></_>
    <_>
      <rect>
        11 18 3 1</rect></_>
    <_>
      <rect>
        12 10 2 3</rect></_>
    <_>
      <rect>
        13 3 3 2</rect></_>
    <_>
      <rect>
        15 3 3 4</rect></_>
    <_>
      <rect>
        16 2 2 4</rect></_>
    <_>
      <rect>
        18 1 2 7</rect></_>
    <_>
      <rect>
        21 6 1 5</rect></_></features></cascade>
</opencv_storage>
